-0.19776978
1.4816219
0.081446812
-0.51691043
-0.21543364
0.85997844
-0.62933683
0.041915685
-1.0041018
-0.01237886
-0.7184456
0.11212075
-1.2999692
0.05394277
0.22793698
-0.11918801
-0.40325403
-0.72823048
0.91228187
0.33474565
0.33098826
-1.00337
1.3106617
-0.0087869372
-0.42293319
-0.18727766
1.2169679
-0.36747366
-0.54852843
0.35722485
-1.2245015
-0.25083417
0.25447607
0.13337103
0.5955947
0.36613807
-0.80349058
-0.019697268
0.61225235
0.55080247
0.031444047
-0.060186837
0.11364748
0.1769197
-0.16838779
-0.49538058
0.49411032
0.15575619
-0.13986903
0.077153482
0.46174583
0.21484213
-0.59558499
0.46529734
-0.56998444
-0.079386264
-0.80014193
-0.072071314
0.044117194
0.078729115
-0.20287547
0.49723482
-0.45754611
-0.62071151
0.14692019
0.18837142
-0.43129024
0.067837052
0.014421979
-0.52551961
0.020503141
-0.16861136
0.5601598
-0.63691139
-0.037036069
0.017884992
0.5103538
-1.1338732
-0.31840652
0.16971594
0.29313684
-0.051875968
-0.029812241
-0.062382106
-1.7836075
-0.80261749
0.53478962
-0.2882773
0.34858912
0.24907131
-0.96884811
0.25626642
-0.10644822
0.79544407
-0.96919173
0.12719354
-0.30399293
0.3382805
-1.1044946
-0.74310637
-0.25132713
0.68384063
-0.55757469
0.46780738
-0.069884531
-0.44966462
-0.85113287
-0.43463311
-0.13851599
-0.550708
-0.22393289
-0.17797887
0.31447405
-0.12017748
-0.60913116
-0.092345744
-0.39739886
0.73641038
-0.32589817
0.15274195
-0.3638525
-0.17368574
-0.10947601
0.26388624
0.75872326
-0.23154567
-0.46109667
0.60068756
-0.379859
-1.0500689
0.66745615
0.31830812
-0.7918117
-0.97023278
0.23900193
0.050638244
-0.38286602
-0.54495466
-0.061049972
-0.2635619
-0.015277058
-0.15914595
0.027023343
-0.034206167
-0.28221574
1.1056154
0.26633418
-0.85266596
-0.55475461
-0.24119198
-1.0048013
-0.097875662
-0.21701075
-0.18916379
0.10500193
-0.1477958
-0.06711635
-0.28589264
-0.63011926
-0.25937551
-0.10946991
-0.10742592
-0.55713058
0.11664005
-0.2458339
0.037120655
0.6462158
0.17883797
-0.59211999
-0.062710039
0.40562636
-0.46899009
0.071659431
-0.77576506
0.063138269
-0.97230601
-0.27668735
-0.14928804
-0.16543572
-0.48107997
1.0401183
-0.78905314
0.64284772
-0.45191008
-0.015827054
-0.16710232
0.238423
0.071630567
0.082465723
0.25759596
0.010878152
-0.028111193
-0.03372965
-0.14768359
0.73946154
-0.82197487
-0.49373478
-0.29843014
-0.57340461
-0.71698821
-0.41893446
0.36806747
-1.8397799
0.39175683
-0.4576363
0.21067333
-3.4711065
0.79148692
2.4584589
-0.44379142
-4.8475909
0.067208834
-0.36621583
1.110441
-1.7437521
0.79575247
-0.28168023
0.15505333
-1.263846
-0.82476699
-0.39305535
0.090237252
-0.48327753
-0.33742529
-0.34235528
-0.54612368
0.30279726
0.51979643
-0.14279908
-0.42983383
0.0022400226
0.38914064
-0.14181677
-0.11502653
-0.3809942
-0.35774431
0.13053097
-0.34436741
0.7117877
-0.69809502
-0.069962606
-0.40870032
0.10286299
0.022936799
0.23469588
0.0012716282
-0.21680349
-0.20438948
-0.64494336
-0.30467618
-0.011746092
-0.15691498
-0.36530769
-0.087141491
-0.40761074
-0.85003453
-0.20183221
-1.1508414
-0.53339666
0.18883966
-0.81112373
0.42703116
-0.31305295
-0.90780944
0.68671042
-0.30301455
-0.36188674
-0.28205642
1.6833645
1.0449314
-0.83316737
0.013201223
-3.0715349
-0.7117542
5.6342487
-0.23986441
0.6848439
0.15938334
0.65352303
-0.54542053
0.23554693
-0.46281955
-0.14191517
0.23344395
-0.058627758
0.43336079
-0.17661627
0.0030121102
-0.049111545
-0.29422945
0.18468526
-0.26251507
-0.32518891
-0.00060022582
-0.66108274
-0.21770856
-0.15171912
-0.80538267
0.071471207
-0.36172056
-0.068704173
0.40276313
-0.24646905
-0.53867334
-0.24060309
-0.1662159
-0.5990833
-0.23834005
-0.38240242
-0.33836192
0.22425647
0.045829982
-0.027818998
-0.20539986
0.36156008
-0.20138285
-0.062796652
0.3253299
0.1450908
-0.20382398
-0.3772231
0.10008806
0.11744362
0.22432671
-0.3151018
0.42346391
0.12178649
0.084485769
-0.33624274
-0.14297955
-0.55487025
-0.53765881
-0.35859904
-0.5072332
0.22790881
0.02965593
-0.32913586
-0.24920161
0.77510339
0.11903055
0.19197327
0.050285269
0.66849732
-0.09215533
-0.54237443
-0.070588619
0.31841516
-0.1941285
0.027096689
-0.070552073
-0.47101381
-0.11222406
0.0048224344
0.28487611
-0.47007573
-0.069508776
0.17667539
-0.094585054
-0.78010178
-0.0068750256
-0.153382
-1.0158697
0.088676468
0.24763703
-0.44095951
-0.20533389
-0.57032257
0.44018069
0.068136804
-0.70671058
0.19351925
-0.081627227
0.17084576
-0.098566711
-0.39954406
0.23265958
-0.40402278
-0.89243442
0.024264921
0.22941409
-0.62630248
-1.8347131
1.2538484
0.077974603
-1.7249327
-2.1013107
1.6232494
0.40130612
0.2642898
-1.8938023
-0.7854647
0.31455112
0.23267826
-2.0103147
-0.51465124
0.52229291
-0.30822933
-0.073290639
-0.60785341
-0.48574102
-0.25062078
-0.013265963
-0.24698076
-0.62126708
-0.37871975
-0.046324313
-0.29993582
-0.026273228
-0.23231396
-0.0057190671
0.07821662
-0.067350425
0.087068625
-0.75483209
-0.086293384
0.33653301
-0.26661059
-0.4142876
-0.028919633
0.12919159
-0.25704879
-0.57344937
0.21650861
-0.23522042
-0.23173872
-0.064540438
-0.64947456
0.10533697
0.12309333
0.14951803
-0.04244617
-0.069400735
-0.66706896
0.013509719
0.49809724
-0.36128986
-0.68629271
0.57072639
-0.55108541
-0.29868147
-0.095811374
-0.093153745
0.12891243
-0.4297044
-0.067618854
-0.92547899
0.19488217
0.018388605
0.58057576
0.0038745047
-1.3384223
-0.36376143
-1.78877
0.04151525
0.42409033
-0.6720354
-2.4213934
-0.083539784
1.6656262
-0.15073843
-0.69299859
0.21562226
-0.16962342
-0.18627681
-0.20179614
-0.0063366499
0.39998943
-0.20133555
-0.11493245
-0.99225569
0.9304412
-0.53976506
-0.54869694
-0.34853223
0.051621661
-0.45954868
0.046205729
-1.8027567
0.74294871
-0.56344062
-0.4844932
-0.54805911
0.28298858
-1.0249292
0.11220063
-0.03265173
-0.27948272
-0.52230376
-0.40925121
0.11851265
0.31699109
-0.12108489
-0.45342827
0.083815858
0.099526055
-0.14791481
0.21857308
0.34159064
-0.72651452
-0.043251026
-0.27228448
0.46339694
-1.6597054
-0.26248974
-1.3377888
-0.34165275
-0.92115837
0.48481682
-1.4228619
-2.0437124
-0.040382899
0.78641999
-0.5045923
1.5929097
-2.0668497
-0.074384399
0.099347115
0.85038733
-0.80603743
0.047807198
-0.58665454
1.2299306
-0.020698061
0.1301229
-0.40354452
-0.58703715
1.0678811
0.1927174
-0.48331466
-0.85819262
0.11861303
-0.29732913
0.11917199
-0.41096115
-0.28004393
-0.53171086
-0.26533723
-0.30691385
0.055946909
-1.0567619
0.12756662
-0.2738986
-0.48038563
-0.19957426
0.11631479
-0.61911702
0.0027193653
-0.042253964
-0.31552699
-0.27259988
0.34362781
0.22362983
-0.14448561
0.17559758
-0.35788563
-0.079688184
-0.26331639
0.69440615
0.026167931
-0.0025055455
0.1047369
0.73679018
-0.36383423
0.040605057
-0.28232244
0.09211278
-0.2455868
0.28172505
0.44927073
-2.5851648
1.0757512
0.12262715
-0.66085225
-0.95478362
-0.2445488
-0.35327983
-1.2072219
1.1699136
-1.1904858
0.43003851
0.40246421
1.4252061
-3.1800401
-0.40405202
0.30008867
1.3181887
-2.2922308
0.069564223
0.13427995
0.1642829
-2.0277135
-0.1896285
0.019587204
-0.23824887
-0.62187749
-0.27565819
-0.18909334
-0.40575823
-0.40684804
-0.076195307
-0.38876307
0.5197196
0.044966396
0.37214488
0.21235512
0.57566565
-0.19280267
0.31063756
0.04775764
0.062655903
-0.73622751
-0.12285686
-0.95363086
-0.024270175
-0.32385963
-0.19466402
0.043080442
0.19246572
0.11681959
-0.38981733
0.14548253
-0.10415181
-0.20778039
-0.039245237
0.021296967
1.1089939
-0.69620717
0.28726569
1.2703022
2.7431111
-2.9216533
0.3645077
0.98887789
0.17608944
-0.9271825
0.38031787
0.53106666
-0.43555179
-0.10642866
-0.016300941
0.099088974
-0.15176731
-0.24823229
-0.033550721
-0.47429171
-0.3860034
0.41636845
-0.047003739
-0.12497678
-0.18346268
0.31481248
-0.72482526
-0.52100897
-0.2395307
-0.38104051
-0.56493646
-0.39511406
0.063597761
-0.59717065
0.057930235
-0.44562969
-0.20956668
-0.0016758982
0.18556711
0.47955281
-0.49068618
-0.2201865
-0.67055839
0.3162362
0.19962241
0.33972299
-0.070055887
-0.070716269
0.54992419
-0.19062866
0.048075896
0.49050424
0.35904044
0.33592489
-0.37832895
-0.36164269
-0.066438861
-0.74391729
-0.64976174
-1.3953626
0.29834664
-1.5770686
0.2656208
3.6266074
-2.362299
-5.0046687
0.2023229
-0.038842395
-1.2191725
-0.56070513
0.27789602
0.075807825
-0.18748538
-0.4146404
-0.27555099
0.42474002
0.3455317
0.045125272
-0.76247203
-0.057550743
0.56912112
0.024945281
-0.59165919
0.5016287
0.58429313
0.18202007
0.2722823
0.1172907
-0.030433279
-0.62548071
0.065046348
0.31957352
0.086800031
0.54243642
0.14484778
-0.016966162
0.46448985
0.25423974
0.16761062
0.55186015
-0.075024433
0.20408468
0.32910514
0.35642761
0.20475173
-0.11624739
0.32232642
0.040803239
-0.29017851
0.30846605
0.21949133
0.50883895
-0.47446823
0.58103436
0.44609007
0.85396528
0.31904981
0.39407685
0.22204325
0.3316372
0.60686564
0.27705407
0.23505716
4.1166792
-1.3074931
-1.2706962
-0.1333347
2.0751164
-0.39400104
-0.83728069
-0.086506344
1.8269202
-0.70169449
-0.011990382
-0.32831642
1.183804
-1.3478168
0.18933858
0.36043778
0.13069119
-0.69978786
0.3411983
-0.38416874
0.024777902
-0.016969897
0.26712334
0.15371616
-0.48332763
0.41444504
0.39498726
-0.021093223
0.19489792
0.31418818
-0.1303494
-0.061377045
-0.22822613
-0.49709779
0.085509136
-0.37504655
-0.40247157
0.28426829
-0.18753061
0.4142254
-0.27323243
-0.57134169
-0.057911463
-0.10491426
-0.34172991
-0.2902208
0.21964774
-0.060075451
-0.047127966
-0.42277873
0.41182584
0.2961536
-1.4044718
-0.34466639
1.257756
-0.2938107
-2.4591768
-0.61620378
0.57929111
-0.33912691
0.039448611
-1.3885773
-1.8848087
0.0056909029
-1.3942118
0.59142268
-0.25586236
0.74857014
0.016674016
0.78862238
-0.58592653
-0.060976762
-0.45224395
0.44990474
-0.54025728
-0.34209308
0.024946196
-0.45306343
-0.68879664
-0.072969057
0.26153272
0.088406973
-0.53910047
-0.40081412
-0.017074939
0.2387902
-0.47528207
0.12266368
-0.15810041
0.27841604
0.31243461
0.13268097
-0.77645147
0.48843989
-0.67867953
0.0076435274
0.33082098
0.24454457
-0.84082878
0.38902131
0.77788883
-0.15509869
-0.58856612
-0.033052929
0.64103562
-0.59917629
-1.2981272
0.15404789
0.031690467
-0.34647128
0.26030087
-0.11463334
-1.0310566
-0.19424444
0.82225263
-0.043354038
-0.34216297
0.22454879
0.57832903
0.12205835
0.35970765
-0.19110514
-0.27413103
-0.10377019
-0.85199606
0.92525005
-0.99649894
-0.61628371
-0.43075532
0.54707342
0.091428652
0.15982217
-0.52682066
-0.38499486
-0.48149654
-0.31085515
-0.25906262
-0.051169258
0.28616032
-0.70601296
0.6576364
-0.35287502
-0.066538677
-0.33727881
-0.023631236
-0.33826259
0.046180759
-0.32459182
-0.03344496
-0.44478935
-0.29409721
-0.22332914
0.97106791
-0.67296392
-0.034879565
-0.28087142
0.15584441
-0.53640741
0.42856148
0.15982477
-0.36328042
-0.17278165
0.2314371
-0.13197285
0.52181882
-0.26619178
-0.051338419
-0.61474717
0.65549409
-0.59700954
-0.31399396
-0.26387787
0.96034139
0.38817593
-0.62585521
-0.46755961
-0.26640341
-0.081885211
-0.96896076
-0.38471168
-0.40676761
0.20168196
-0.066425718
-0.10746602
-0.47575828
0.37275591
0.16812167
-0.019688483
-0.20244133
0.54830486
-0.1798618
-0.27427867
-0.65975696
0.41484472
0.83305788
-0.46699643
-1.386991
0.38264978
0.94532955
-0.066760249
-0.50549543
-0.086086281
0.65436059
-0.12142817
-0.28446746
-0.08830373
0.38428935
0.40905818
-0.093167424
-0.4742355
0.094917312
0.27250099
-0.62327343
0.039198868
0.027701268
-0.50544477
0.04745302
-0.22545868
-0.32627758
0.35402969
-0.057408575
-0.92657417
-0.11322387
-0.14180669
0.19708663
0.037212532
-0.44165739
0.41369805
-0.21884593
0.23263954
0.60243911
-0.21663308
0.54888153
-0.88151467
0.70875806
0.3384065
1.7508086
-1.2524182
0.63955665
-0.42655548
-0.21289316
1.9726727
0.90191799
0.024714159
2.3234951
-1.4099284
0.75242877
-0.20934741
1.6577952
-1.0691066
0.61130983
0.30289632
0.71145487
-0.50086325
0.4467046
0.36726993
-0.62857616
-0.3684023
0.72075564
1.1286155
-0.7116856
0.041733176
-0.6744833
0.26119673
-0.0055061816
-0.4367626
-0.91227984
0.3011879
-0.9759264
-0.6918968
-0.20883252
-0.036465056
0.18733114
-0.0026732103
-0.34411031
0.36502337
0.23669732
-0.29259315
0.76444006
0.14205211
-0.46056235
0.070237793
-0.70639223
-0.41627452
-0.20544362
0.21045282
-0.022748765
-0.87544078
-0.1820211
-0.35785991
0.29165861
-0.16932185
-0.6900999
-0.15466926
0.017259555
0.061762664
5.2241902
-1.9506588
-4.6710134
-0.070640229
-1.9019789
-0.16591761
1.0920336
-0.058981936
-0.25325602
0.2442296
1.3837367
-0.19981429
0.04561941
0.38679174
-0.5388419
-0.11121418
0.44095254
0.17993608
0.35835654
0.57914662
0.014385743
0.74826276
0.29727253
0.59508455
0.17741504
0.065026261
0.10609686
-0.46837512
0.26358512
-0.11767986
0.27149326
0.21154055
-0.73920119
-0.27846867
-0.62012953
0.44265211
-0.73775589
0.53458357
0.85674113
-0.28172258
0.22246961
1.6296252
-0.38376075
0.79107863
0.66502023
0.77962214
-0.66613448
-0.1877441
0.0051069669
0.1933918
-1.584049
0.42210373
0.35764232
-0.16873518
-1.9891083
-0.32317123
-0.54218459
-1.342092
-0.5719831
-0.57882953
-0.36750847
-1.2959911
1.6363746
0.45099711
0.071144089
-1.6001459
1.2621477
-0.046068355
-0.10344251
-1.3780959
-0.53849119
-0.62666386
-0.33553374
-0.083955973
-1.4167217
-1.2067556
0.24186508
0.13856435
-0.75075513
-0.5523299
-0.40586787
0.042516064
-1.4257078
0.35333738
-0.58448571
-0.34818053
-0.76185369
-0.31037974
-0.28592154
0.12953937
-1.4387348
0.09838178
0.3983573
1.4811021
-0.83981359
-0.65077478
-0.3288407
1.6132756
-0.14588071
0.23124439
-0.039105266
1.100444
-0.85897887
-0.016712073
1.5032823
1.055988
-0.11088405
0.4276883
-0.026655076
1.6714875
0.50867158
-0.26770243
0.75678104
0.36279353
1.0092072
-0.26802507
0.81136382
0.54274219
-0.88201725
0.29997876
-0.14266603
-0.31603479
1.069001
-0.54414827
-0.57837236
1.1592605
1.5862063
0.52662063
0.72933257
1.0840282
0.8711319
1.140335
0.51481438
-0.16987468
-0.48941055
0.11174833
-0.60739154
-0.37802529
-0.1916016
-0.6059649
0.16611564
-0.52336544
-0.24854864
-0.51361376
-0.30454335
0.52325064
-0.081289522
0.52425349
0.2261955
-0.19392496
-0.61340553
-0.18721041
0.12556048
0.11966012
0.53529769
-0.29780629
0.15700342
0.061919104
0.13675736
-0.2382641
0.47351795
-0.0060306331
0.19330068
-0.30091655
-0.46128044
0.032515381
0.33785021
-0.0095295822
-0.069013178
0.34354526
-0.14881675
0.12256785
-0.11494955
-0.2504569
-0.34896353
0.045943167
-0.41771087
0.053867657
-0.44255149
0.064799704
-0.17186178
0.72515595
-0.30771288
0.12506145
-0.47207725
2.1999967
-0.56983489
0.03040836
-0.96579719
0.32742077
-0.0035514615
-0.19637197
-0.47628227
0.026180662
0.46985903
0.025254108
-0.045105886
-0.069673263
0.20254882
-0.3532494
-0.35791194
-0.13482195
0.40153807
-0.10971909
0.10001851
0.18184079
0.34141448
0.073302649
0.077857256
0.034100063
0.53150165
-0.35434109
-0.021702541
0.25469923
0.23452488
0.018491527
0.024740117
-0.11932197
0.0081423884
0.19495983
-0.68158334
-1.0621541
0.065732196
-0.77458614
-0.061656129
-0.76794404
0.15639216
-0.57770234
0.031525243
-1.1111133
-0.044738602
-0.15717323
0.084034793
-0.064118862
0.4693442
-0.36035886
-1.5663502
0.4668749
0.79411095
-0.39532375
-2.0665219
2.1180048
0.58810216
0.003731152
0.18302856
1.0351384
0.025121726
0.55739194
-0.096055016
-0.57989949
-0.72235709
0.25685269
-0.7123484
-0.092306234
-0.10392707
0.091914169
0.076231122
-1.5938833
-0.019281952
-0.14181738
-0.093866736
-0.19041446
-0.21312995
0.52949095
0.020963179
-0.19506738
0.15231366
0.50722885
-0.67227012
0.26172084
0.72175825
-0.59311855
0.16779839
0.11511736
0.19180001
0.60387355
-0.46545547
-0.27531081
-0.87207431
0.11813942
0.060797416
-0.47834617
0.23193747
-0.3218286
0.10305381
0.30120051
-0.19257744
0.1635173
-0.19778302
0.068143651
-0.1315102
-0.15236457
-0.42759642
0.39804518
-0.12257528
0.15417048
0.23166135
-1.0048431
0.55394197
-0.61414278
0.3465243
-0.20910916
0.067825831
-1.0959866
2.2217641
-2.6949875
0.52088553
-0.92835611
-4.1891594
5.5844569
-1.2402421
-0.73855907
-0.16751243
0.26918882
-0.70047486
-0.53124994
0.23189087
-0.1647913
0.085183509
0.11722514
0.43274766
0.44623148
0.0956937
-0.030160204
0.33310089
-0.25319043
0.3146337
0.63502389
0.22831044
0.51721019
0.32605815
0.562226
0.23618789
0.38408151
0.22943912
-0.23031704
-0.61901766
-0.12963332
1.0513443
0.31374907
-0.16034678
0.33532128
0.6644783
0.11001161
0.18354642
0.34038645
-0.23462531
-0.23439775
0.77349955
-0.66009802
-0.46457899
0.3433542
-0.17208295
0.92354572
0.55147803
-0.12498848
-0.41267067
-0.93179464
0.55001891
0.11850191
0.20926571
-0.056525882
-0.10900606
0.62025905
-0.84228867
0.50048578
-1.5940888
0.18561029
-0.24291225
-0.32307503
-0.90320492
0.21334562
1.5147991
0.54366904
-0.71130526
0.27690282
0.91229069
-1.0745953
-0.97443032
0.1421997
0.73761654
-0.084862828
-0.69491214
-0.99097472
0.90762347
-0.80472368
-0.91054589
-0.75259054
0.13703205
-0.24299653
-0.72179049
-0.81545913
0.18472014
0.25073025
0.50721836
-1.1492217
0.033187304
0.39696929
-0.22451055
0.79912889
0.36802736
-0.21427754
-0.56360239
-0.052846633
0.30906239
-0.45647293
0.34450123
0.60734862
-0.36569864
0.022253357
0.45531136
0.071836337
0.36556268
0.0094009573
0.25841436
-0.12043433
0.3710146
-0.20980187
0.017764397
0.053009089
-0.036866497
-0.67524344
0.2308214
0.17888349
0.048631705
-0.78774267
1.3941818
0.08645542
0.21989374
-0.32119378
-0.67877316
0.57816696
-0.20678262
0.93610001
-0.19626367
0.18551053
-0.62417221
1.5882258
-0.1850006
-0.065351352
0.28453374
0.79083508
-0.19002762
-0.4073737
0.64399326
0.43145499
-0.15868947
-0.095380828
0.5470019
0.55550379
-0.53908551
0.2809771
0.3283911
0.0040002465
-0.44274023
-0.24569879
-0.93848735
0.5424518
-0.041449912
0.04833049
-0.75416481
0.26125297
-0.15867743
-0.14100762
-0.68645066
0.59972745
-0.16500977
-0.70245218
-0.8560614
-0.32615587
-0.61624384
-0.47569397
-0.69836992
0.16002071
-0.42689109
0.33189806
-1.2426262
1.102883
-0.13492629
-0.050938752
-1.5376993
1.1047299
0.48756576
0.08275792
-1.1785967
-0.28053033
1.577468
-0.11598508
-0.83197314
0.39265588
0.53669083
0.13455984
-0.4297936
0.015025286
-0.2404241
0.14542359
-0.11837773
0.15032108
-0.6843769
-0.13014179
-0.40764225
-0.28607297
-0.89134485
0.15428613
-0.43888742
-0.6330874
-0.13928062
0.1611869
-0.35922506
-0.415232
-0.52024877
-0.31778157
-0.13081467
0.35677353
-0.43699184
0.2780987
-0.50668406
-0.50535393
-0.38998991
-0.95252007
-0.25511762
-0.25884685
-0.48688197
-0.28619727
0.0049217944
-0.19201683
0.17342746
-0.46410513
-0.18722279
-0.2922844
-0.40435511
-1.1354094
-0.59121227
-0.9621641
-0.81711417
-0.76019222
-1.1317481
-1.9562654
-1.923327
-0.65581012
3.5763643
-4.7695017
-6.1053729
0.76272732
5.1499686
-6.2250466
-4.5134702
0.7157349
5.4034309
-5.235446
-4.811399
0.023254771
-1.4823427
-1.9321952
-1.5366784
-0.58655483
-0.62457681
-0.81886137
-0.96009493
-1.1802346
0.012696654
-0.33419511
-0.088682398
-0.92595309
-0.32334271
-0.3432824
-0.49200049
-1.2793109
-0.2710239
-0.37675563
-0.49134254
-0.42377138
-0.94638836
-0.81437713
-0.70284712
-1.2041303
0.29364005
-0.040083874
0.049999695
-0.11594567
-0.089676611
0.047874786
0.13378567
0.98961806
-0.28675374
-0.14820789
-0.25306383
-0.1534667
-0.25541314
-0.46435809
-0.038235325
-0.094285756
0.51098949
-0.47113356
0.18415879
0.37035385
-1.2759755
-0.39692137
0.99579066
0.5710113
-0.17053969
2.199996
-0.073260814
-0.18569215
-2.2086143
3.5604274
2.4621477
0.23918357
-0.88568926
1.3896658
-0.0033943658
0.26994231
-0.77889407
0.4180935
0.93911266
-0.39430553
0.6625089
0.14728685
0.63632923
0.52004123
0.34358132
-0.51904863
0.29170403
0.64770502
-0.045430958
0.31040844
0.92945069
0.78467423
0.25384599
0.619569
0.60016334
0.059586771
0.88515252
0.08986336
0.4067713
1.4624966
-1.4932588
-0.16435353
1.1186326
0.26881418
-0.95898467
0.10179386
-0.50173795
1.9028549
-0.65420902
-0.1600001
-1.3036196
0.77858961
-1.1812204
-0.27304676
-1.1978171
-0.8016265
-0.36730945
1.1137334
-1.3053092
-0.37469509
0.56466395
0.2859607
-1.2826102
-0.24135658
-0.41409779
0.66485727
-0.22351864
-1.2331432
1.4938704
0.15883175
-0.40095976
-0.43282858
1.1022936
0.52201802
-0.35623035
-0.65379244
-0.3066878
-0.43724549
0.10074381
0.13710481
-0.89237511
-1.7938703
-2.0417976
0.7798456
-0.1014044
-0.41002199
-0.87180334
0.97169358
-0.22114572
0.54840529
-1.0618348
0.11166095
0.023056453
1.1640563
-1.0766238
0.017238796
-1.0318611
1.016924
1.0994049
-0.60053951
-0.12436791
0.21862416
-0.71403146
-0.48860013
-0.43617928
-0.39289343
-0.50729531
-0.17688532
0.1847389
-0.28912011
0.2633591
0.049369127
-0.17779349
-0.20066938
-0.11737972
0.22999847
0.20208807
0.57391989
0.058346465
0.35389704
0.28224987
-0.23861699
0.19811511
0.17390025
-0.40301874
-0.80024636
-0.48540097
-0.024020378
0.31613964
0.89268219
-0.338011
0.61419076
0.68496531
-1.049403
0.24182878
-0.26804951
-2.9225817
2.8738525
-0.92918301
0.13642111
-0.27135468
1.4150004
-0.74237293
-0.22345346
-0.0058679301
-0.026754787
-0.40823165
-0.44082242
0.39760667
0.49944249
-0.35717618
0.41307345
0.8755517
0.32534227
-0.55639803
-0.0061094929
-0.13131003
0.5302012
-0.10023237
0.24057017
0.14321312
0.33490491
-0.29900819
-0.13638543
-0.24928673
-1.0095973
-0.23768266
-0.31848767
0.19014733
-0.65948236
-0.18130414
-0.3781209
-0.43055075
-0.64784318
0.64002132
-0.29538876
-1.8399034
-0.889332
2.3586752
-0.57592267
-1.4637468
-0.49667272
1.5397567
-0.15787053
1.3624465
0.20974502
-1.6328287
-0.52973634
0.84445477
0.16966726
-0.66575503
0.058915243
-0.68120688
0.39978826
-0.20381108
0.26214382
-0.36044341
-0.24837643
-0.085557364
-0.11173243
-0.20653827
-0.64567077
-0.031047754
-0.29586557
0.065749131
-0.2319175
-0.12691845
0.099858701
0.36840364
-0.028456409
0.41996664
-0.17743282
0.010104472
0.27453205
-0.60381705
0.45384455
0.059720021
-0.11370368
0.22060072
-0.18262178
0.039087802
-0.2303347
0.29329431
0.40048009
0.060045149
0.2527203
-0.1841967
0.29305923
0.07791727
0.096978568
0.02680178
-0.11781162
-0.24111117
-0.19312167
-0.36234081
-0.22621186
-0.23769248
0.16543727
-0.12048896
-0.89775693
-1.6581089
4.3689823
-1.3451617
-0.15523879
-0.40400845
1.8798542
-0.79001558
-0.55988544
1.4064419
-2.1965401
0.78425831
-0.12787466
0.46948704
-1.0287964
1.7291547
-0.33477664
0.26663455
-0.84672111
1.1051705
-0.23087785
-0.28118593
0.67558962
-0.52008063
0.19167006
0.4523156
0.71053851
-0.42189455
0.42794669
0.03665749
-0.35593694
-0.017844567
-0.15029077
-0.54567802
-0.1941603
0.3766717
-0.34682688
-0.14125487
-0.6195634
-0.40801072
-0.55851227
-0.68872786
-0.95466644
0.36269674
0.75334835
-0.14556414
-0.82532591
-0.24595973
0.093951911
-0.17125855
-0.66751188
-0.50751328
0.041398644
-1.0580667
-0.61718524
-0.32304761
0.4953047
-0.019573186
0.080670923
0.24658862
0.73523098
-0.57736075
0.62820619
-0.26646349
-0.51334268
-0.58720583
0.21843216
-0.20216936
0.33201608
0.85080743
-0.51357037
-0.6746695
0.062852673
-0.091928132
-0.10015313
0.085396878
0.35999772
0.6808089
-1.6772658
1.7519246
-0.2884182
-0.045717943
-1.2499753
1.0031375
-0.44327375
-0.31136373
-0.93500048
0.89169639
-0.95833516
-0.40549088
-0.066364288
0.12888636
0.097372621
0.85828459
-0.37387934
1.5018507
-0.81262124
0.11497482
-0.710536
1.1269689
0.44121319
-0.083246358
-0.50283295
0.36265981
-0.4411723
1.4226578
-0.93750602
-0.32724631
-0.1383808
-0.42457893
0.12085394
-1.1541839
-0.016857481
-0.22555885
1.1186798
-0.013352627
-0.88273138
0.71075273
-0.98213178
-0.038766079
0.52162528
-1.2138182
0.087334268
0.12248677
-0.026087206
0.43244934
-1.4247192
-0.47247609
0.063575692
-1.0084708
1.0152353
-0.39832905
-0.60134816
0.12069241
0.57839882
0.079445243
-0.26361695
-2.0221558
0.39889202
0.0090084085
1.2131301
0.0498963
-0.54511803
-0.62708014
-0.2659027
0.027052836
-1.4857906
-0.3193433
-0.85025579
0.36510047
-2.2033739
0.00024869898
0.0061642998
0.73703134
-1.1601597
0.44649261
-0.3154195
0.66815448
-1.213002
0.84809351
0.0066034328
-0.79387301
-0.022022367
-1.2879815
-0.12097698
-0.39241341
-0.29465252
0.3599281
-0.38118246
-0.19962135
-0.35409731
0.055638231
0.071567945
0.85031903
-0.53237611
0.0017363633
-0.03279816
0.26741162
1.5495156
1.25058
0.17219794
-0.67708349
0.55783129
0.75220627
-0.65025598
-0.46638441
-0.27138776
-0.1300451
-0.54855913
-3.2752497
1.0694387
0.92749256
0.017821226
-2.3260794
0.14658003
0.87710601
-0.70212448
-0.21469493
-0.16264327
0.45569101
-0.9901768
0.29368874
-0.61629891
-0.012527999
0.41008103
0.1550646
-0.57568514
-0.39986637
0.30205727
-0.3010813
-0.096619017
-0.041332912
-1.0415258
-0.39878061
0.16946244
-0.040112559
-0.0085978676
-0.51321882
0.17724815
0.11658633
0.54128724
0.095680729
-0.66576207
0.64510608
0.0046280404
0.45648694
-1.2865427
-0.1527867
0.43615931
0.066249281
-0.80488104
-0.20647231
0.84347081
0.40066513
0.38847312
-0.34275782
-0.22954735
-1.1365514
1.274604
-0.86880046
-0.37097007
-0.30491325
-0.22348945
0.59094852
0.14364976
0.44608513
-0.93154901
0.54013401
-0.58546215
-0.86963516
-0.052030649
-0.15648225
-0.053052686
-0.20098348
-0.20758688
0.024905598
-0.36261114
-0.24399237
1.2220607
0.14415991
-0.72071654
0.66773927
0.044076826
-0.78011465
0.2339011
-0.26782313
-0.76115608
0.11580139
-0.060749847
-0.82574159
0.087585695
-0.41500714
-0.34572613
-0.85353619
0.26073396
-0.57909542
0.0092336563
-1.0935923
0.44278437
0.49538493
-0.17449278
-1.0389323
0.26572585
0.35099754
-0.24358925
-0.42340091
0.35055348
0.28044838
-0.21678001
-0.39553508
0.73896718
-0.032438468
-0.18484886
-0.8244915
0.29109558
0.73378396
0.35122207
-0.37224787
0.36124793
0.1225979
0.37848815
-0.62832177
0.058103532
1.1963414
0.091978006
-1.2577049
-0.1024254
1.2878819
-0.34695292
-2.9153187
1.4894062
2.1839182
0.41132477
0.78936863
0.28701755
-0.75691223
-0.18677329
-0.22832459
-0.19927017
0.073378228
0.28905198
-0.20849772
-0.08995004
0.59683532
0.10502837
-0.72690976
-0.72069544
0.20284851
0.15774618
-0.79155695
-0.81376243
0.10450754
-0.14084192
-0.24517857
-0.094466433
-0.51551557
-0.78770632
-0.16929556
0.20848373
-0.61048192
-0.15730998
0.537305
-0.060821664
0.36875647
-0.6333195
-0.17750478
0.42208818
0.49757737
-0.48525789
0.063238226
0.13225244
-0.31667927
-0.36519971
1.0615877
-0.62675786
0.36065432
-0.30678472
-0.10590968
0.25882807
0.053239595
0.30230817
0.36812162
-0.20194504
0.011284387
0.15252249
-0.4002344
-0.01398869
-0.64154053
0.029626902
-1.1105634
0.83146775
-1.3664945
0.22247647
-1.9185725
0.94053149
-0.42037764
0.0011131918
-0.59227592
-0.48390228
-0.73583764
-0.049392261
1.0913428
-2.822613
0.41783547
0.54463702
0.6039682
-2.891196
0.64592814
-0.097243324
0.019371308
-0.65958571
0.32583416
0.28682238
-0.086253025
-0.46889198
0.013935999
-0.22796784
-0.27634212
-0.6165275
-0.55596447
-0.37955561
0.14857729
0.15666175
0.033270493
-0.43224177
0.37578568
0.28696632
-0.2495129
-0.50247377
-0.13372463
-0.44554785
0.75898433
-0.46218282
-0.49773726
-0.83184034
0.13289712
0.59781921
-0.94920915
-0.44399959
0.2468309
0.13557921
-1.4045445
0.53181249
-0.044889912
0.51828521
-1.7530459
1.7417077
-0.10540692
-0.035342932
-0.63301194
1.0200125
-1.5313617
0.1258076
0.035084546
-0.68005657
1.0307118
-0.11137946
0.55929679
0.21878266
0.31478572
-0.15412802
0.31316248
0.53006315
0.46399426
0.34774446
0.25910214
0.63804263
0.7263943
-0.054386925
0.46352232
0.19489801
0.6919179
-0.22573121
-0.020693587
0.15527394
0.018299807
-0.34487432
0.86641175
0.49428123
-0.23869583
-0.83837867
0.076274693
-0.61140901
0.46298423
0.95162892
-0.67698371
0.0060490761
-0.2099819
-0.49467343
-0.051534906
0.54199648
-0.47094315
-0.35143763
-0.65862262
-0.85687482
0.29676378
-0.61379051
-0.40568951
0.023145059
-0.5030396
-0.010531728
0.68438172
-0.9562524
0.15440585
0.25999925
0.58411556
-0.35256213
-0.20283045
-0.57066935
-2.2560477
-0.039704733
2.3397498
-0.47964981
-0.89042836
0.45973197
1.0439501
-0.30480283
-0.7147764
0.047395501
0.76401567
-0.075151712
-0.40121955
-0.53368551
-0.59857827
0.40462735
-0.62126243
-0.58985746
-0.1201617
-0.93259776
-0.92790884
-0.61271429
-0.069533557
-0.51546365
-0.22634326
-0.97961563
-0.089026168
-0.1703869
0.1665771
-0.85984331
0.38380334
0.47184509
-0.2068128
-1.3036009
-0.0024333994
0.33440205
-0.66600043
-0.82427514
0.17288905
-0.54936212
0.015074288
-0.53328943
1.4450141
-0.39556354
-0.36272031
-1.0943192
0.70532328
-0.40713641
-0.4247483
-0.42470744
0.10120167
-0.43692631
0.51036936
-0.7816807
-0.53906935
-0.69258797
0.33087736
-0.67294437
0.3502346
-0.65190208
-0.44476846
1.410928
-0.58175677
0.078054503
-0.20291337
0.67154765
-0.8785094
0.19611548
-1.750411
1.213677
-0.41005024
0.20240149
-0.44679749
-0.44578943
-0.82785457
-0.16798617
0.033103928
-1.4123819
-0.43426496
-0.13412862
0.1041274
-1.1455253
0.51426727
-0.49110198
0.59506178
-1.4878165
-0.093356065
-0.39492998
-0.55619669
-1.0692257
0.67712712
0.030630171
-0.058406319
-0.097799718
-0.021937652
0.25666744
-0.15720591
-0.44186062
-0.57498121
-0.53129297
-0.12241951
-0.13539708
-0.61945343
0.030950485
0.89792347
0.45544043
0.15800026
0.0031918103
-0.51262248
0.45357519
-0.25364983
-0.37137938
-0.14258175
0.49623159
0.21027586
0.35899013
-0.47667977
-0.82487637
1.3836595
0.8256315
1.4724057
-2.3970411
-0.52478105
-0.087150142
-1.0911129
0.16115391
0.81959534
0.094248317
0.41166446
-0.93510628
0.090512067
-0.062057342
0.03035306
-0.70463216
-0.8438561
0.81140423
0.68826503
-0.53889328
-0.22864367
0.29640642
-0.41812512
-0.016114535
1.0338427
1.0810946
-0.5184713
0.49499986
-0.49225751
0.72255707
-0.64346802
0.1911297
-0.62624377
0.8154189
-0.18415259
-0.092535183
0.022386294
0.54322213
0.044278309
0.73706919
-0.12718511
0.47112256
0.36517763
0.9683097
0.4197219
-0.54737407
-0.34131649
0.39571494
-0.08333537
0.32388294
0.77136165
0.082477361
1.1106318
0.37696129
-0.55678052
0.10095511
-0.10359053
1.117434
-0.91267842
0.63549459
-0.17293149
0.1820313
2.6438484
1.3139442
-3.2576525
0.22357292
-2.0748565
0.44339994
2.9720345
0.699108
-0.71581155
-0.33108282
2.6134865
0.24357325
0.075677037
-0.6363129
-0.40224764
0.87353361
0.11619861
0.13620065
-0.18725778
-0.32601875
0.4558467
0.13678817
0.72607189
0.058668461
-0.021376871
0.14590751
-0.35421383
-0.35661277
-0.65237468
-0.10821383
-0.18129157
0.41387969
-0.25411907
0.53976238
-0.437868
-0.44214827
-0.48664171
-0.25050187
-0.36561841
-0.061472248
-0.06396164
-0.68288159
-0.57025051
0.11044807
0.056932352
-0.20763092
0.61300457
-0.29347134
1.2648937
-2.1288216
1.5069919
0.40549031
1.0375965
-1.8135539
1.6622952
-0.6507256
0.49516454
-1.1623067
0.26586482
-0.85096598
-0.89322948
0.091743611
-3.9895644
-0.38284466
-1.493722
-1.2215037
0.79483306
0.31777075
-0.22343595
-0.048335899
0.34464577
-0.80453664
0.31260321
-1.1402057
0.45840639
-0.65701443
-0.25392428
-0.45864737
0.18184693
0.084230542
-0.071507439
0.50426167
0.36331952
-0.20781362
0.32920337
-0.014235756
-0.79881346
0.1341906
0.047537517
-0.83300203
-0.034092691
0.36628595
0.062479466
1.0815678
-0.42412689
-1.103485
0.457937
0.60662705
0.13516654
0.25998124
0.49926624
-0.54558915
0.70752519
-0.0037037453
0.41936907
0.19538675
0.45716566
0.017921507
0.00073101377
0.10239641
0.75166357
0.13646047
-0.45106125
-0.72244519
1.3099128
-0.20155782
-1.1079388
-1.5413163
2.3730724
-0.59701681
-0.47752026
-2.3461196
1.3221942
0.047526516
-1.3156368
0.027264843
1.364359
0.1205607
-1.0838826
-0.58864301
0.56368494
0.21486986
-0.080707669
-0.32495794
0.40130731
-1.4358732
0.10994156
0.00072968897
0.90399069
0.088899545
-0.62150723
-0.58735287
0.6368891
-1.2490299
-0.31618637
0.18257342
0.21842884
0.59526873
0.59423065
-0.34021351
-0.044358864
0.62651432
-0.27426365
0.55367333
-0.29460347
-0.19314002
-0.4831475
-0.61126214
-0.24380305
0.41652167
0.054197237
-1.4267242
0.82162338
-0.014277723
0.70586985
-2.9857481
1.437538
-0.33064008
2.5465419
-3.2343585
0.90813202
0.49223015
-1.065215
0.45796382
-0.62139136
-0.47505316
-2.4439831
2.808331
-1.4469484
0.25129035
-0.14769574
-1.1720797
-1.5633051
-0.31928426
-0.62826663
-0.36743903
0.08037813
-0.033542793
0.052452493
-1.440882
-0.051007155
-0.58144057
-0.80196655
-0.47599599
-0.056432735
-0.031675648
1.0550302
0.94520468
0.14161438
-0.064467281
0.41345313
0.070205502
-0.065525524
-0.28894818
-0.27332887
-4.4645876e-05
0.3220481
0.13352378
-0.4098807
0.51611865
-0.84844953
0.73693097
0.28128201
-0.05975049
0.079642005
0.072899543
-0.033743802
-0.42688328
0.0013211265
0.15427706
0.039270051
0.046004336
-0.3709195
-0.20130786
-0.34405723
-0.17973728
-0.10538389
0.067037173
0.034604058
-0.28405705
0.019238422
-0.003291348
-0.16183729
0.4388814
-0.40401125
0.051389657
0.3148081
2.3885598
-0.79690129
0.18276235
-2.6479759
4.7221775
-0.64785367
0.42388085
0.28665373
1.2237622
-0.56844765
-0.007583715
0.29990935
0.68606639
-0.21918048
0.59028429
-0.17397964
-0.2829794
-0.33805972
0.0032969671
0.37538967
-0.24979922
0.086196646
-0.12084313
-0.30003101
-0.020250894
-0.034527417
0.056103371
0.10037653
-0.049637564
-0.22230862
-0.01585724
0.43975365
0.58313257
0.49543905
0.60881275
0.120364
-0.0010933727
-0.056153789
0.032326169
-0.19623664
-0.075427651
0.40604419
-0.23683602
-0.027494911
0.16662869
-0.88516855
-0.13396452
0.20303589
0.12992041
0.097962044
-0.074313015
-0.32637486
0.6574114
-0.92609113
-0.30586845
0.66307449
0.19581231
-2.595628
-0.23874296
1.5619433
0.12617841
-4.557601
-0.012255401
-1.6702238
-1.6631465
1.1823865
-0.092028394
-0.01045006
-0.17117362
-0.68535519
-0.0015885244
-0.061585035
-0.027857678
-0.18872587
0.17218754
0.40749514
-0.1874357
-0.053068899
0.36902687
0.35543075
0.35853982
0.16553082
0.13840055
0.28205916
0.22473714
0.032139316
-0.26067621
-0.10553475
0.049082618
-0.13412653
0.23436044
-0.2942116
-0.18019399
-0.13656263
-0.42952871
-0.18309933
0.081098571
-0.58745843
-0.21779028
0.084965736
-0.14832854
-0.423123
-0.26490983
0.16571449
-0.19456349
-0.40588158
-0.19804057
0.40474847
-0.31269532
-0.52421629
-0.092479952
0.20826234
-0.28275165
-0.54381442
0.11021259
-0.046665657
0.086110547
-0.5488621
-0.04864775
-0.42145184
0.38585734
-0.13948974
0.061689675
0.053289287
0.27534214
-0.11646231
0.028389081
-0.18296869
0.080355264
-0.12152088
-0.0077303923
-0.18953465
-0.15242703
-0.2394831
-0.083821274
-0.086430952
-0.263087
-0.46952435
-0.026491927
-0.074028671
0.21966588
-0.5652284
0.034259737
-0.31614357
0.04007398
-0.36979863
0.2491792
-0.08845564
0.08476951
-0.67698377
0.15912396
-0.30548093
0.066975087
-0.43309733
0.2568858
-0.29928771
-0.46332809
-0.66541398
0.043593809
-0.099159867
-0.36559659
-0.30362827
-0.053820759
-0.48825768
0.2052559
0.25228801
-0.18223038
-0.64507097
-0.12286107
0.34922153
0.078633264
-0.28980336
-0.36386973
0.057290688
-0.042759899
-0.35300717
-0.0047522048
0.035303287
-0.25970933
-0.58878225
-0.032277498
-0.17071368
-0.07885661
0.9746564
-1.5769132
0.52149892
-0.036616787
-0.23220906
0.43663135
-1.3878542
0.040374525
-0.052019984
0.01407516
-1.3081359
-0.038001403
0.19586442
0.091001019
-1.216543
-0.26659733
0.12182266
0.089599237
-0.36923033
0.059539933
-0.12174144
-0.30426285
-0.2457519
0.087167382
-0.14434364
-0.46871492
0.15043546
-0.13957958
-0.37482774
-0.24604265
0.25208575
-0.19589362
-0.033613864
-0.35621363
0.13801898
0.22500734
0.5547722
-0.046351116
-0.76586664
0.13226926
-0.042762123
0.24339376
-0.33409497
0.092656963
0.04814801
0.0055592805
-0.36976594
0.3191272
-0.66370493
0.1789452
-0.37325934
-0.035868037
-0.3717083
0.43150356
-0.15996556
-0.16303062
-1.1428026
-0.1276353
0.35937664
0.39527252
1.3396266
-0.92652154
-1.5674134
-0.0022888239
-1.266564
-0.38900709
0.072800376
0.40529683
-0.46045184
-0.15165173
-0.10746182
-0.13679819
0.028076082
0.057346366
0.59611303
-0.46899071
-0.1454353
0.34659478
0.3588613
-0.062836885
0.48162329
0.040641814
-0.48306173
0.19283544
-0.0017296311
-0.015264736
-0.70544529
-0.3203505
0.18729742
-0.30115515
-0.18526517
-0.57045299
-1.0555817
0.57485461
-0.85525483
-0.06272012
-0.62500942
0.19771451
-1.4228013
0.017126037
-0.023320617
0.40241218
-1.7339201
-0.1544116
0.1715806
0.43328619
-1.7651891
-0.063400172
-0.11457215
0.57437783
-1.8663983
-0.13904753
0.01529368
1.0388982
-1.5388944
-0.31743172
-0.88886625
1.0963254
-1.4051632
0.2462855
1.1925262
-0.638313
-1.9971112
-0.041132137
-0.86655682
0.23902756
-1.1128532
0.2825132
-0.81664062
-0.2439671
-0.45067912
-0.27922887
-0.0029656147
-0.49516648
-0.52358902
-0.018667091
0.076780245
-0.044365272
-0.31441143
0.12192267
-0.31789312
-0.48072281
0.03671746
0.097233586
-0.4375335
0.077452891
-0.63835824
-0.35110083
0.20255809
0.19533695
-1.1963151
-0.40247917
-0.5157823
-0.39972094
0.1622373
-0.20598368
-1.0735565
0.15082364
0.048124421
0.030163994
-0.93334138
0.31051153
0.29596218
0.093547799
0.31933224
-0.28074506
-0.15131213
-0.14885867
0.73718846
-0.72243524
-0.53023994
-0.12591474
-0.36768568
-0.41404697
0.43622768
-0.069482937
-0.39362043
-0.32716128
0.020563269
-0.26632965
-0.77970165
0.07096903
-0.10721272
0.086758398
0.4015125
0.43723407
-0.67503232
-0.16100733
-0.08809416
0.29128692
0.2114922
0.53592151
-0.11288846
0.011556218
0.22815439
-0.06043461
-0.022465115
-0.077422753
-0.1020629
0.38462961
0.50401491
-0.57249314
-0.25026041
0.014202946
0.26656935
-0.69862241
0.17017828
0.20211664
-0.86603492
-0.040934939
-0.33549497
0.13695815
-0.033711635
-0.44013122
-0.44190872
-0.5740875
-0.37811896
-0.58884603
0.21419583
-0.037251327
-0.35443884
-0.37073737
-0.061295804
0.066149339
0.50673342
-0.032387026
-0.34870577
-0.37744954
-0.12033978
-0.1701528
-0.0010768052
-0.5235787
-0.28617954
-0.51070929
-0.30481118
-0.63536459
0.30587712
-0.69058001
-0.15571791
0.084388092
0.30537504
0.84567797
-2.1687467
0.074499682
-5.245388
1.4915711
2.870882
0.3197782
-0.288167
-0.22616005
-0.20235361
0.21368955
0.36022848
-0.815346
-0.28893438
0.05542165
-0.00026472466
-0.66476673
0.150363
-0.17128535
-0.14164495
-0.30860955
-0.36912611
-0.14035958
-0.18814333
0.034150235
-0.065580934
0.071927071
-0.6199497
-0.54682052
0.12364893
0.049489237
-0.60829449
-1.162029
0.15084267
0.1821605
0.79052675
-0.79044431
0.38277325
0.55208367
0.15197007
-0.92033601
0.057555187
0.70879453
0.29820997
-1.0141599
0.099012591
-0.21496773
-0.067106798
0.32011995
0.45574909
-0.18562332
-0.50560671
1.0496411
-0.23766606
-0.1667939
-0.40481701
0.82190943
-0.71292639
-0.047427494
-0.13081037
1.1469785
-1.1652935
-0.1055228
-0.24175675
-0.47831702
0.058207922
0.00086575036
0.70457679
-1.3304017
0.15205951
0.26579189
-0.38730231
-0.33750826
0.052771635
0.48325536
-0.37566426
-0.058305673
0.015423849
-0.12433339
-0.011856129
0.65981984
-0.75235707
-0.27795377
-0.70183963
-0.63323766
-1.2340958
-0.16522445
0.46210781
-1.4121528
1.3850964
0.85952568
0.25852779
0.85375345
1.1371281
1.4575518
-1.6088561
0.68515354
0.74578702
1.5281342
1.4544548
1.3370091
-0.86687201
1.3023864
3.2778046
2.0629478
0.15522188
-0.8895486
-1.7143592
2.1836214
-0.74600077
-1.2961699
-1.150369
0.96845341
-1.7884555
0.28746158
-0.27826884
0.78144956
-15.089088
-2.4884799
0.83460313
-1.2927861
-0.83309114
-1.2645808
0.96379018
-0.79903436
-3.0293846
-0.81989723
-0.94600415
-1.5832207
0.022473289
-1.9766457
-0.48202479
1.1854582
2.1567867
0.11726018
1.0728822
-1.5594229
-0.71334898
-1.7636086
0.76230097
-1.2217147
0.79205066
1.5190486
-0.64591295
2.8752007
-0.20925066
1.5939578
-1.4054301
-0.30430096
-1.5398598
-0.82978415
0.97686112
-0.54594821
-1.3811255
-1.7702205
-2.5316267
0.91150117
-1.1220556
-3.1655407
-2.202637
-0.87752616
1.0812902
1.3167319
-0.78142357
-0.46151438
-0.13344356
-0.23756044
-2.0212488
2.5524268
0.35419938
-1.6813223
1.4077908
-0.49792108
-0.42880514
-1.0491635
1.9974605
-0.92449158
1.8528908
-1.4262462
1.1201804
0.57366455
1.7337229
-0.62091345
1.891064
1.232013
-3.346041
2.2068965
-1.6924883
1.497138
1.9486576
-1.2109431
2.6153495
4.0380101
-1.4747393
-0.68817735
-1.419715
-0.55267513
-3.1679487
-0.63427913
-1.7181071
1.7672565
-1.1725332
-0.59751892
0.88496858
-2.5548232
2.7349446
0.84523863
-3.2283661
-0.14634189
3.1866515
2.1395941
-2.9619889
-0.81824279
1.9868867
0.17405048
1.3059187
0.26188093
-0.48044965
-2.0502179
1.5846816
0.70824432
-1.2095581
0.075122222
-1.3095475
-0.79342109
0.037569217
-3.1312499
-0.90986025
1.1929883
-0.66471237
-2.1538212
1.9472593
-1.1306027
0.31963304
0.19422694
2.1297505
-0.31348881
1.021817
-1.6518543
-1.6518999
1.4403678
-1.7835808
-0.14416608
-2.0096028
-1.8213753
-0.59475797
-2.0000665
0.94318759
3.4151375
-0.57399082
0.97245872
-1.8391806
-0.88250709
1.3216197
-0.89791411
-1.5225269
-0.47281992
-0.26073724
-0.08736521
-0.52448702
0.06105734
-0.47616309
-0.5738346
0.39169911
1.2485948
-0.82684898
-2.7192187
-0.075616501
2.3197207
0.14603803
-0.092877567
-1.1059216
-1.1956671
0.040343773
-1.4890394
0.40613627
-0.3802253
0.10137291
-1.0069541
-0.21313092
0.52189755
-0.6554786
-8.3246899
2.1633468
-0.030138241
-1.5977228
0.62026864
-0.88675213
1.3034465
-0.20592546
-1.352162
-0.49855864
0.18993911
-1.5916256
-1.1580236
0.20828599
-1.5454613
-0.56997794
1.745937
-0.54963946
1.3804758
-1.6721433
1.8141083
-1.4204613
-0.71267974
-0.24044286
-0.58295077
-2.5460722
-0.018000482
0.11675463
-1.4730045
-0.84339148
-0.48547521
-1.2559761
